digraph Tree {
node [shape=box, style="filled, rounded", color="black", fontname=helvetica] ;
edge [fontname=helvetica] ;
0 [label="X[1] <= 44.5\ngini = 0.39\nsamples = 11485\nvalue = [8466, 3019]", fillcolor="#eeae80"] ;
1 [label="X[0] <= 9.5\ngini = 0.49\nsamples = 3061\nvalue = [1369, 1692]", fillcolor="#d9ecfa"] ;
0 -> 1 [labeldistance=2.5, labelangle=45, headlabel="True"] ;
2 [label="X[1] <= 39.5\ngini = 0.48\nsamples = 1664\nvalue = [991, 673]", fillcolor="#f7d7bf"] ;
1 -> 2 ;
3 [label="X[0] <= 5.5\ngini = 0.5\nsamples = 1006\nvalue = [523, 483]", fillcolor="#fdf5f0"] ;
2 -> 3 ;
4 [label="gini = 0.44\nsamples = 181\nvalue = [122, 59]", fillcolor="#f2be99"] ;
3 -> 4 ;
5 [label="gini = 0.5\nsamples = 825\nvalue = [401, 424]", fillcolor="#f4fafe"] ;
3 -> 5 ;
6 [label="X[0] <= 8.5\ngini = 0.41\nsamples = 658\nvalue = [468, 190]", fillcolor="#f0b489"] ;
2 -> 6 ;
7 [label="gini = 0.39\nsamples = 529\nvalue = [389, 140]", fillcolor="#eeae80"] ;
6 -> 7 ;
8 [label="gini = 0.47\nsamples = 129\nvalue = [79, 50]", fillcolor="#f5d1b6"] ;
6 -> 8 ;
9 [label="X[0] <= 12.5\ngini = 0.39\nsamples = 1397\nvalue = [378, 1019]", fillcolor="#82c1ef"] ;
1 -> 9 ;
10 [label="X[1] <= 39.5\ngini = 0.47\nsamples = 780\nvalue = [289, 491]", fillcolor="#aed7f4"] ;
9 -> 10 ;
11 [label="gini = 0.42\nsamples = 481\nvalue = [143, 338]", fillcolor="#8dc6f0"] ;
10 -> 11 ;
12 [label="gini = 0.5\nsamples = 299\nvalue = [146, 153]", fillcolor="#f6fbfe"] ;
10 -> 12 ;
13 [label="X[0] <= 14.5\ngini = 0.25\nsamples = 617\nvalue = [89, 528]", fillcolor="#5aaee9"] ;
9 -> 13 ;
14 [label="gini = 0.36\nsamples = 276\nvalue = [64, 212]", fillcolor="#75bbed"] ;
13 -> 14 ;
15 [label="gini = 0.14\nsamples = 341\nvalue = [25, 316]", fillcolor="#49a5e7"] ;
13 -> 15 ;
16 [label="X[0] <= 12.5\ngini = 0.27\nsamples = 8424\nvalue = [7097, 1327]", fillcolor="#ea995e"] ;
0 -> 16 [labeldistance=2.5, labelangle=-45, headlabel="False"] ;
17 [label="X[0] <= 8.5\ngini = 0.22\nsamples = 7596\nvalue = [6646, 950]", fillcolor="#e99355"] ;
16 -> 17 ;
18 [label="X[0] <= 5.5\ngini = 0.15\nsamples = 4552\nvalue = [4182, 370]", fillcolor="#e78c4b"] ;
17 -> 18 ;
19 [label="gini = 0.09\nsamples = 1449\nvalue = [1384, 65]", fillcolor="#e68742"] ;
18 -> 19 ;
20 [label="gini = 0.18\nsamples = 3103\nvalue = [2798, 305]", fillcolor="#e88f4f"] ;
18 -> 20 ;
21 [label="X[0] <= 10.5\ngini = 0.31\nsamples = 3044\nvalue = [2464, 580]", fillcolor="#eb9f68"] ;
17 -> 21 ;
22 [label="gini = 0.28\nsamples = 1905\nvalue = [1588, 317]", fillcolor="#ea9a61"] ;
21 -> 22 ;
23 [label="gini = 0.36\nsamples = 1139\nvalue = [876, 263]", fillcolor="#eda774"] ;
21 -> 23 ;
24 [label="X[0] <= 16.5\ngini = 0.5\nsamples = 828\nvalue = [451, 377]", fillcolor="#fbeadf"] ;
16 -> 24 ;
25 [label="X[0] <= 13.5\ngini = 0.48\nsamples = 716\nvalue = [430, 286]", fillcolor="#f6d5bd"] ;
24 -> 25 ;
26 [label="gini = 0.45\nsamples = 294\nvalue = [194, 100]", fillcolor="#f2c29f"] ;
25 -> 26 ;
27 [label="gini = 0.49\nsamples = 422\nvalue = [236, 186]", fillcolor="#f9e4d5"] ;
25 -> 27 ;
28 [label="X[0] <= 19.5\ngini = 0.3\nsamples = 112\nvalue = [21, 91]", fillcolor="#67b4eb"] ;
24 -> 28 ;
29 [label="gini = 0.37\nsamples = 86\nvalue = [21, 65]", fillcolor="#79bded"] ;
28 -> 29 ;
30 [label="gini = 0.0\nsamples = 26\nvalue = [0, 26]", fillcolor="#399de5"] ;
28 -> 30 ;
}