digraph Tree {
node [shape=box, style="filled, rounded", color="black", fontname=helvetica] ;
edge [fontname=helvetica] ;
0 [label="X[5] <= 7.98\ngini = 0.92\nsamples = 620\nvalue = [11, 1, 1, 8, 151, 56, 17, 21, 6, 10, 36, 13\n18, 7, 1, 7, 5, 7, 7, 2, 6, 5, 4, 37, 9, 6\n13, 11, 2, 4, 3, 2, 2, 1, 9, 1, 1, 1, 3, 1\n2, 2, 3, 6, 4, 4, 6, 2, 2, 1, 2, 1, 2, 1\n2, 1, 3, 4, 2, 6, 2, 2, 4, 1, 2, 3, 1, 1\n2, 2, 4, 2, 4, 1, 2, 1, 1, 2, 3, 2, 4, 1\n2, 2, 1, 4, 2]", fillcolor="#fbf1de"] ;
1 [label="X[5] <= 7.01\ngini = 0.22\nsamples = 172\nvalue = [11, 1, 1, 8, 151, 0, 0, 0, 0, 0, 0, 0, 0, 0\n0, 0, 0, 0, 0, 0, 0, 0, 0, 0, 0, 0, 0, 0\n0, 0, 0, 0, 0, 0, 0, 0, 0, 0, 0, 0, 0, 0\n0, 0, 0, 0, 0, 0, 0, 0, 0, 0, 0, 0, 0, 0\n0, 0, 0, 0, 0, 0, 0, 0, 0, 0, 0, 0, 0, 0\n0, 0, 0, 0, 0, 0, 0, 0, 0, 0, 0, 0, 0, 0\n0, 0, 0]", fillcolor="#e8b953"] ;
0 -> 1 [labeldistance=2.5, labelangle=45, headlabel="True"] ;
2 [label="X[5] <= 2.01\ngini = 0.58\nsamples = 21\nvalue = [11, 1, 1, 8, 0, 0, 0, 0, 0, 0, 0, 0, 0, 0\n0, 0, 0, 0, 0, 0, 0, 0, 0, 0, 0, 0, 0, 0\n0, 0, 0, 0, 0, 0, 0, 0, 0, 0, 0, 0, 0, 0\n0, 0, 0, 0, 0, 0, 0, 0, 0, 0, 0, 0, 0, 0\n0, 0, 0, 0, 0, 0, 0, 0, 0, 0, 0, 0, 0, 0\n0, 0, 0, 0, 0, 0, 0, 0, 0, 0, 0, 0, 0, 0\n0, 0, 0]", fillcolor="#f9e2d1"] ;
1 -> 2 ;
3 [label="gini = 0.0\nsamples = 11\nvalue = [11, 0, 0, 0, 0, 0, 0, 0, 0, 0, 0, 0, 0, 0\n0, 0, 0, 0, 0, 0, 0, 0, 0, 0, 0, 0, 0, 0\n0, 0, 0, 0, 0, 0, 0, 0, 0, 0, 0, 0, 0, 0\n0, 0, 0, 0, 0, 0, 0, 0, 0, 0, 0, 0, 0, 0\n0, 0, 0, 0, 0, 0, 0, 0, 0, 0, 0, 0, 0, 0\n0, 0, 0, 0, 0, 0, 0, 0, 0, 0, 0, 0, 0, 0\n0, 0, 0]", fillcolor="#e58139"] ;
2 -> 3 ;
4 [label="X[5] <= 5.72\ngini = 0.34\nsamples = 10\nvalue = [0, 1, 1, 8, 0, 0, 0, 0, 0, 0, 0, 0, 0, 0\n0, 0, 0, 0, 0, 0, 0, 0, 0, 0, 0, 0, 0, 0\n0, 0, 0, 0, 0, 0, 0, 0, 0, 0, 0, 0, 0, 0\n0, 0, 0, 0, 0, 0, 0, 0, 0, 0, 0, 0, 0, 0\n0, 0, 0, 0, 0, 0, 0, 0, 0, 0, 0, 0, 0, 0\n0, 0, 0, 0, 0, 0, 0, 0, 0, 0, 0, 0, 0, 0\n0, 0, 0]", fillcolor="#ebb765"] ;
2 -> 4 ;
5 [label="X[5] <= 4.51\ngini = 0.5\nsamples = 2\nvalue = [0, 1, 1, 0, 0, 0, 0, 0, 0, 0, 0, 0, 0, 0\n0, 0, 0, 0, 0, 0, 0, 0, 0, 0, 0, 0, 0, 0\n0, 0, 0, 0, 0, 0, 0, 0, 0, 0, 0, 0, 0, 0\n0, 0, 0, 0, 0, 0, 0, 0, 0, 0, 0, 0, 0, 0\n0, 0, 0, 0, 0, 0, 0, 0, 0, 0, 0, 0, 0, 0\n0, 0, 0, 0, 0, 0, 0, 0, 0, 0, 0, 0, 0, 0\n0, 0, 0]", fillcolor="#ffffff"] ;
4 -> 5 ;
6 [label="gini = 0.0\nsamples = 1\nvalue = [0, 1, 0, 0, 0, 0, 0, 0, 0, 0, 0, 0, 0, 0\n0, 0, 0, 0, 0, 0, 0, 0, 0, 0, 0, 0, 0, 0\n0, 0, 0, 0, 0, 0, 0, 0, 0, 0, 0, 0, 0, 0\n0, 0, 0, 0, 0, 0, 0, 0, 0, 0, 0, 0, 0, 0\n0, 0, 0, 0, 0, 0, 0, 0, 0, 0, 0, 0, 0, 0\n0, 0, 0, 0, 0, 0, 0, 0, 0, 0, 0, 0, 0, 0\n0, 0, 0]", fillcolor="#e58c39"] ;
5 -> 6 ;
7 [label="gini = 0.0\nsamples = 1\nvalue = [0, 0, 1, 0, 0, 0, 0, 0, 0, 0, 0, 0, 0, 0\n0, 0, 0, 0, 0, 0, 0, 0, 0, 0, 0, 0, 0, 0\n0, 0, 0, 0, 0, 0, 0, 0, 0, 0, 0, 0, 0, 0\n0, 0, 0, 0, 0, 0, 0, 0, 0, 0, 0, 0, 0, 0\n0, 0, 0, 0, 0, 0, 0, 0, 0, 0, 0, 0, 0, 0\n0, 0, 0, 0, 0, 0, 0, 0, 0, 0, 0, 0, 0, 0\n0, 0, 0]", fillcolor="#e59839"] ;
5 -> 7 ;
8 [label="gini = 0.0\nsamples = 8\nvalue = [0, 0, 0, 8, 0, 0, 0, 0, 0, 0, 0, 0, 0, 0\n0, 0, 0, 0, 0, 0, 0, 0, 0, 0, 0, 0, 0, 0\n0, 0, 0, 0, 0, 0, 0, 0, 0, 0, 0, 0, 0, 0\n0, 0, 0, 0, 0, 0, 0, 0, 0, 0, 0, 0, 0, 0\n0, 0, 0, 0, 0, 0, 0, 0, 0, 0, 0, 0, 0, 0\n0, 0, 0, 0, 0, 0, 0, 0, 0, 0, 0, 0, 0, 0\n0, 0, 0]", fillcolor="#e5a339"] ;
4 -> 8 ;
9 [label="gini = 0.0\nsamples = 151\nvalue = [0, 0, 0, 0, 151, 0, 0, 0, 0, 0, 0, 0, 0, 0\n0, 0, 0, 0, 0, 0, 0, 0, 0, 0, 0, 0, 0, 0\n0, 0, 0, 0, 0, 0, 0, 0, 0, 0, 0, 0, 0, 0\n0, 0, 0, 0, 0, 0, 0, 0, 0, 0, 0, 0, 0, 0\n0, 0, 0, 0, 0, 0, 0, 0, 0, 0, 0, 0, 0, 0\n0, 0, 0, 0, 0, 0, 0, 0, 0, 0, 0, 0, 0, 0\n0, 0, 0]", fillcolor="#e5ae39"] ;
1 -> 9 ;
10 [label="X[5] <= 8.86\ngini = 0.96\nsamples = 448\nvalue = [0, 0, 0, 0, 0, 56, 17, 21, 6, 10, 36, 13, 18\n7, 1, 7, 5, 7, 7, 2, 6, 5, 4, 37, 9, 6, 13\n11, 2, 4, 3, 2, 2, 1, 9, 1, 1, 1, 3, 1, 2\n2, 3, 6, 4, 4, 6, 2, 2, 1, 2, 1, 2, 1, 2\n1, 3, 4, 2, 6, 2, 2, 4, 1, 2, 3, 1, 1, 2\n2, 4, 2, 4, 1, 2, 1, 1, 2, 3, 2, 4, 1, 2\n2, 1, 4, 2]", fillcolor="#fefcf6"] ;
0 -> 10 [labeldistance=2.5, labelangle=-45, headlabel="False"] ;
11 [label="gini = 0.0\nsamples = 56\nvalue = [0, 0, 0, 0, 0, 56, 0, 0, 0, 0, 0, 0, 0, 0\n0, 0, 0, 0, 0, 0, 0, 0, 0, 0, 0, 0, 0, 0\n0, 0, 0, 0, 0, 0, 0, 0, 0, 0, 0, 0, 0, 0\n0, 0, 0, 0, 0, 0, 0, 0, 0, 0, 0, 0, 0, 0\n0, 0, 0, 0, 0, 0, 0, 0, 0, 0, 0, 0, 0, 0\n0, 0, 0, 0, 0, 0, 0, 0, 0, 0, 0, 0, 0, 0\n0, 0, 0]", fillcolor="#e5ba39"] ;
10 -> 11 ;
12 [label="X[5] <= 14.13\ngini = 0.97\nsamples = 392\nvalue = [0, 0, 0, 0, 0, 0, 17, 21, 6, 10, 36, 13, 18\n7, 1, 7, 5, 7, 7, 2, 6, 5, 4, 37, 9, 6, 13\n11, 2, 4, 3, 2, 2, 1, 9, 1, 1, 1, 3, 1, 2\n2, 3, 6, 4, 4, 6, 2, 2, 1, 2, 1, 2, 1, 2\n1, 3, 4, 2, 6, 2, 2, 4, 1, 2, 3, 1, 1, 2\n2, 4, 2, 4, 1, 2, 1, 1, 2, 3, 2, 4, 1, 2\n2, 1, 4, 2]", fillcolor="#fefffe"] ;
10 -> 12 ;
13 [label="X[5] <= 12.82\ngini = 0.73\nsamples = 90\nvalue = [0, 0, 0, 0, 0, 0, 17, 21, 6, 10, 36, 0, 0, 0\n0, 0, 0, 0, 0, 0, 0, 0, 0, 0, 0, 0, 0, 0\n0, 0, 0, 0, 0, 0, 0, 0, 0, 0, 0, 0, 0, 0\n0, 0, 0, 0, 0, 0, 0, 0, 0, 0, 0, 0, 0, 0\n0, 0, 0, 0, 0, 0, 0, 0, 0, 0, 0, 0, 0, 0\n0, 0, 0, 0, 0, 0, 0, 0, 0, 0, 0, 0, 0, 0\n0, 0, 0]", fillcolor="#f6f9d4"] ;
12 -> 13 ;
14 [label="X[5] <= 10.15\ngini = 0.7\nsamples = 54\nvalue = [0, 0, 0, 0, 0, 0, 17, 21, 6, 10, 0, 0, 0, 0\n0, 0, 0, 0, 0, 0, 0, 0, 0, 0, 0, 0, 0, 0\n0, 0, 0, 0, 0, 0, 0, 0, 0, 0, 0, 0, 0, 0\n0, 0, 0, 0, 0, 0, 0, 0, 0, 0, 0, 0, 0, 0\n0, 0, 0, 0, 0, 0, 0, 0, 0, 0, 0, 0, 0, 0\n0, 0, 0, 0, 0, 0, 0, 0, 0, 0, 0, 0, 0, 0\n0, 0, 0]", fillcolor="#fcfaea"] ;
13 -> 14 ;
15 [label="gini = 0.0\nsamples = 17\nvalue = [0, 0, 0, 0, 0, 0, 17, 0, 0, 0, 0, 0, 0, 0\n0, 0, 0, 0, 0, 0, 0, 0, 0, 0, 0, 0, 0, 0\n0, 0, 0, 0, 0, 0, 0, 0, 0, 0, 0, 0, 0, 0\n0, 0, 0, 0, 0, 0, 0, 0, 0, 0, 0, 0, 0, 0\n0, 0, 0, 0, 0, 0, 0, 0, 0, 0, 0, 0, 0, 0\n0, 0, 0, 0, 0, 0, 0, 0, 0, 0, 0, 0, 0, 0\n0, 0, 0]", fillcolor="#e5c539"] ;
14 -> 15 ;
16 [label="gini = 0.58\nsamples = 37\nvalue = [0, 0, 0, 0, 0, 0, 0, 21, 6, 10, 0, 0, 0, 0\n0, 0, 0, 0, 0, 0, 0, 0, 0, 0, 0, 0, 0, 0\n0, 0, 0, 0, 0, 0, 0, 0, 0, 0, 0, 0, 0, 0\n0, 0, 0, 0, 0, 0, 0, 0, 0, 0, 0, 0, 0, 0\n0, 0, 0, 0, 0, 0, 0, 0, 0, 0, 0, 0, 0, 0\n0, 0, 0, 0, 0, 0, 0, 0, 0, 0, 0, 0, 0, 0\n0, 0, 0]", fillcolor="#f4ecae"] ;
14 -> 16 ;
17 [label="gini = 0.0\nsamples = 36\nvalue = [0, 0, 0, 0, 0, 0, 0, 0, 0, 0, 36, 0, 0, 0\n0, 0, 0, 0, 0, 0, 0, 0, 0, 0, 0, 0, 0, 0\n0, 0, 0, 0, 0, 0, 0, 0, 0, 0, 0, 0, 0, 0\n0, 0, 0, 0, 0, 0, 0, 0, 0, 0, 0, 0, 0, 0\n0, 0, 0, 0, 0, 0, 0, 0, 0, 0, 0, 0, 0, 0\n0, 0, 0, 0, 0, 0, 0, 0, 0, 0, 0, 0, 0, 0\n0, 0, 0]", fillcolor="#d4e539"] ;
13 -> 17 ;
18 [label="X[5] <= 15.95\ngini = 0.97\nsamples = 302\nvalue = [0, 0, 0, 0, 0, 0, 0, 0, 0, 0, 0, 13, 18, 7\n1, 7, 5, 7, 7, 2, 6, 5, 4, 37, 9, 6, 13, 11\n2, 4, 3, 2, 2, 1, 9, 1, 1, 1, 3, 1, 2, 2\n3, 6, 4, 4, 6, 2, 2, 1, 2, 1, 2, 1, 2, 1\n3, 4, 2, 6, 2, 2, 4, 1, 2, 3, 1, 1, 2, 2\n4, 2, 4, 1, 2, 1, 1, 2, 3, 2, 4, 1, 2, 2\n1, 4, 2]", fillcolor="#f2fdf2"] ;
12 -> 18 ;
19 [label="X[5] <= 14.75\ngini = 0.49\nsamples = 31\nvalue = [0, 0, 0, 0, 0, 0, 0, 0, 0, 0, 0, 13, 18, 0\n0, 0, 0, 0, 0, 0, 0, 0, 0, 0, 0, 0, 0, 0\n0, 0, 0, 0, 0, 0, 0, 0, 0, 0, 0, 0, 0, 0\n0, 0, 0, 0, 0, 0, 0, 0, 0, 0, 0, 0, 0, 0\n0, 0, 0, 0, 0, 0, 0, 0, 0, 0, 0, 0, 0, 0\n0, 0, 0, 0, 0, 0, 0, 0, 0, 0, 0, 0, 0, 0\n0, 0, 0]", fillcolor="#edf8c8"] ;
18 -> 19 ;
20 [label="gini = 0.0\nsamples = 13\nvalue = [0, 0, 0, 0, 0, 0, 0, 0, 0, 0, 0, 13, 0, 0\n0, 0, 0, 0, 0, 0, 0, 0, 0, 0, 0, 0, 0, 0\n0, 0, 0, 0, 0, 0, 0, 0, 0, 0, 0, 0, 0, 0\n0, 0, 0, 0, 0, 0, 0, 0, 0, 0, 0, 0, 0, 0\n0, 0, 0, 0, 0, 0, 0, 0, 0, 0, 0, 0, 0, 0\n0, 0, 0, 0, 0, 0, 0, 0, 0, 0, 0, 0, 0, 0\n0, 0, 0]", fillcolor="#c8e539"] ;
19 -> 20 ;
21 [label="gini = 0.0\nsamples = 18\nvalue = [0, 0, 0, 0, 0, 0, 0, 0, 0, 0, 0, 0, 18, 0\n0, 0, 0, 0, 0, 0, 0, 0, 0, 0, 0, 0, 0, 0\n0, 0, 0, 0, 0, 0, 0, 0, 0, 0, 0, 0, 0, 0\n0, 0, 0, 0, 0, 0, 0, 0, 0, 0, 0, 0, 0, 0\n0, 0, 0, 0, 0, 0, 0, 0, 0, 0, 0, 0, 0, 0\n0, 0, 0, 0, 0, 0, 0, 0, 0, 0, 0, 0, 0, 0\n0, 0, 0]", fillcolor="#bde539"] ;
19 -> 21 ;
22 [label="X[5] <= 26.77\ngini = 0.96\nsamples = 271\nvalue = [0, 0, 0, 0, 0, 0, 0, 0, 0, 0, 0, 0, 0, 7\n1, 7, 5, 7, 7, 2, 6, 5, 4, 37, 9, 6, 13, 11\n2, 4, 3, 2, 2, 1, 9, 1, 1, 1, 3, 1, 2, 2\n3, 6, 4, 4, 6, 2, 2, 1, 2, 1, 2, 1, 2, 1\n3, 4, 2, 6, 2, 2, 4, 1, 2, 3, 1, 1, 2, 2\n4, 2, 4, 1, 2, 1, 1, 2, 3, 2, 4, 1, 2, 2\n1, 4, 2]", fillcolor="#edfded"] ;
18 -> 22 ;
23 [label="gini = 0.78\nsamples = 88\nvalue = [0, 0, 0, 0, 0, 0, 0, 0, 0, 0, 0, 0, 0, 7\n1, 7, 5, 7, 7, 2, 6, 5, 4, 37, 0, 0, 0, 0\n0, 0, 0, 0, 0, 0, 0, 0, 0, 0, 0, 0, 0, 0\n0, 0, 0, 0, 0, 0, 0, 0, 0, 0, 0, 0, 0, 0\n0, 0, 0, 0, 0, 0, 0, 0, 0, 0, 0, 0, 0, 0\n0, 0, 0, 0, 0, 0, 0, 0, 0, 0, 0, 0, 0, 0\n0, 0, 0]", fillcolor="#b6f5b6"] ;
22 -> 23 ;
24 [label="gini = 0.97\nsamples = 183\nvalue = [0, 0, 0, 0, 0, 0, 0, 0, 0, 0, 0, 0, 0, 0\n0, 0, 0, 0, 0, 0, 0, 0, 0, 0, 9, 6, 13, 11\n2, 4, 3, 2, 2, 1, 9, 1, 1, 1, 3, 1, 2, 2\n3, 6, 4, 4, 6, 2, 2, 1, 2, 1, 2, 1, 2, 1\n3, 4, 2, 6, 2, 2, 4, 1, 2, 3, 1, 1, 2, 2\n4, 2, 4, 1, 2, 1, 1, 2, 3, 2, 4, 1, 2, 2\n1, 4, 2]", fillcolor="#fdfffd"] ;
22 -> 24 ;
}